39 128
6 0.0708468 0.0195311 0.0379373 0.0314761 0.205442 -0.246165 0.0571879 0.0625902 0.0535784 0.0857168 0.129398 0.0231465 -0.28946 -0.0854055 0.108198 0.0817076 -0.176334 -0.266186 -0.0305074 -0.128112 -0.0418629 -0.0913827 0.0898597 0.145872 0.191418 0.0588108 0.0715365 0.0606058 -0.0702158 -0.076647 -0.105722 0.202204 0.105641 0.0657246 -0.0326802 0.0107689 0.0049345 0.0113879 -0.0274252 -0.0363637 -0.0751348 -0.0269576 0.129797 0.0171347 0.0269505 -0.0571263 -0.0953204 0.0198537 0.0262254 -0.350353 -0.0870786 0.0736954 -0.0877824 -0.0281852 0.0708191 0.0400695 0.32634 -0.072264 0.124594 0.140296 0.259443 0.416995 0.201245 0.134847 -0.116869 -0.104687 0.0345687 0.0147274 -0.232871 -0.133022 -0.121468 0.334661 0.529619 -0.0473126 0.187058 0.518206 -0.038162 -0.052703 -0.380834 0.556909 0.256868 -0.271107 0.164704 -0.309105 -0.13281 -0.0217575 0.077779 0.0281363 -0.319056 -0.205056 -0.188632 0.101298 -0.0461286 0.0665791 -0.444823 0.052123 0.00622941 0.25587 -0.173236 -0.127348 0.201195 -0.099522 0.14849 0.399602 0.194597 0.123248 0.0367374 -0.203512 0.32995 -0.751617 0.23718 0.0729997 0.200628 0.0379417 -0.0360634 -0.274111 -0.179195 -0.0245201 -0.199726 0.303487 1.13453 0.226998 -0.078545 0.083386 0.958686 -0.887262 0.235907 -0.173855
5 0.0292735 0.053939 0.0472858 0.065703 0.165867 -0.208097 0.0384349 0.0114707 0.0861236 0.0140815 0.137036 0.0270295 -0.275016 -0.110924 0.195796 0.219465 -0.255165 -0.355457 -0.0703792 -0.135673 -0.0239658 -0.122679 0.265355 0.240662 0.233518 0.0654516 0.157865 0.0615623 -0.162282 -0.133083 -0.187494 0.302388 0.189014 0.0999371 -0.0366732 -0.10374 -0.0462161 -0.0402299 -0.0488059 0.0210314 0.0188169 -0.015166 0.0879318 -0.0196219 0.0413344 -0.00643558 -0.0394027 -0.0183074 0.0157028 -0.169746 -0.171116 0.0939143 -0.0648036 0.0179246 0.0399855 0.0440836 0.296265 -0.0615775 0.118268 0.0605506 0.196687 0.335363 0.148772 0.161215 -0.227405 -0.17539 0.135392 0.0409308 -0.154122 -0.127636 -0.0540314 0.394312 0.499626 -0.07161 0.230953 0.577019 -0.0914159 -0.107247 -0.397329 0.591196 0.445002 -0.404491 0.145903 -0.402057 -0.22557 0.0603555 0.0843264 0.0226263 -0.337997 -0.177143 -0.180682 0.112314 0.00274071 0.0523306 -0.223019 -0.0212842 -0.000708417 0.176237 -0.0599255 -0.0617438 0.32516 -0.0614275 0.145092 0.376182 0.154909 0.142157 0.0329942 -0.201885 0.247279 -0.612561 0.13071 0.0572691 0.185446 0.013865 -0.0235459 -0.42249 -0.244175 -0.0115272 -0.209877 0.33826 1.10402 0.262317 -0.0856499 0.088359 0.877104 -0.836246 0.199305 -0.155217
39 -0.064768 0.0228815 0.0357784 0.0667972 0.00212252 -0.0179995 0.00168148 -0.0232738 0.0134919 -0.004158 0.00541135 -0.00358401 0.00253783 -0.00614256 0.0248622 -0.0124446 -0.0342764 0.00123334 -0.0235473 -0.024986 0.0289053 0.0259952 -0.00614381 0.0199689 0.0135502 0.0145341 -0.0232204 -0.0124935 -0.04215 -0.0474689 -0.0467055 0.0745201 0.0779987 0.0143043 0.0290999 -0.0240568 -0.0683149 -0.0465084 -0.0237644 0.0510534 0.039079 0.0158762 0.0527335 -0.0767122 0.000837112 0.00108067 0.0129589 -0.0639568 0.0540095 -0.105076 -0.142939 0.0283596 -0.00772207 0.044735 0.0191332 0.0913882 0.129095 -0.0326512 0.048595 -0.00875559 0.134492 0.248787 0.0927683 0.156341 -0.220321 -0.152807 0.105881 -0.0213002 -0.0641068 -0.0679988 -0.018877 0.303412 0.31679 -0.0852868 0.175373 0.419979 -0.154115 -0.0851759 -0.195276 0.329786 0.482778 -0.399731 0.0664002 -0.255357 -0.305777 0.139407 0.131768 0.0200135 -0.524888 -0.155081 -0.383686 0.208095 -0.112067 0.162698 -0.526897 -0.0934412 -0.00737334 0.312044 -0.119769 -0.229872 0.463083 -0.0895401 0.130153 0.314754 0.18351 0.141059 -0.0279272 -0.165921 0.164639 -0.433556 -0.00669496 0.0068515 0.185447 0.0258622 -0.00968949 -0.625054 -0.306358 -0.0117625 -0.210487 0.324701 1.02686 0.229456 -0.0663369 0.0625434 0.753975 -0.77636 0.192398 -0.109826
27 0.0841635 0.0623319 -0.042436 -0.0437897 -0.0645495 0.0361335 0.000544844 0.000596009 -0.0652053 -0.0373994 0.00421224 -0.0354434 0.046049 0.00329646 0.00194359 -0.0112474 -0.0366533 -0.0532009 -0.0288459 -0.0391476 0.00235816 0.0232238 0.0803874 0.0449488 0.068411 0.0388367 0.0663094 -0.00293152 -0.0591161 -0.0750806 -0.0924529 0.120468 0.0633293 0.0544873 -0.0441281 -0.169685 -0.0695214 -0.0147417 -0.0129644 -0.0106898 -0.0154825 -0.00911678 0.0811209 -0.0665165 0.0207203 -0.0137192 0.0593041 0.00745506 0.0276637 0.0331216 -0.0860799 0.0157058 0.016449 0.020005 -0.0113407 0.0607302 0.127282 -0.0175434 0.0303957 -0.0340933 0.134424 0.216412 0.0976943 0.116737 -0.239205 -0.164458 0.0823513 -0.0314022 -0.0420532 -0.0472019 -0.0213542 0.185787 0.299893 -0.0739494 0.134972 0.373447 -0.121559 -0.0844691 -0.329555 0.51516 0.532541 -0.430005 0.0705077 -0.277641 -0.395975 0.107417 0.178443 0.0377122 -0.785739 -0.310464 -0.488374 0.285048 -0.130843 0.225095 -0.726134 -0.0591036 -0.00711878 0.435093 -0.115571 -0.267563 0.436625 -0.0525788 0.157461 0.324676 0.288025 0.19866 0.021862 -0.117682 0.178854 -0.46664 -0.0166084 0.0463916 0.140277 0.0544377 0.00860691 -0.398778 -0.313771 -0.0147629 -0.189389 0.34132 0.966915 0.203362 -0.0457994 0.0385359 0.693993 -0.743576 0.156168 -0.101214
38 -0.00130535 -0.0223237 0.00758043 0.00648955 -0.0523836 0.11209 -0.0452773 -0.0279823 -0.0212263 -0.0382707 -0.0526469 -0.0369828 0.0971998 0.0139462 -0.0130351 0.0430208 -0.0468817 -0.0145982 -0.0508581 0.020374 0.0234781 -0.0156835 0.081075 0.0395042 0.0598058 0.0332123 0.105109 -0.028714 -0.0243617 -0.0204385 -0.110189 0.0712378 -0.0587989 -0.0056586 -0.0349836 -0.0761361 -0.0323689 0.0290485 0.0444335 -0.101776 -0.0203014 -0.0165401 -0.0849396 -0.0210686 -0.0709807 -0.0341734 0.0136895 -0.00518895 0.0181583 0.00882876 -0.19594 0.104756 -0.00747876 0.0679745 -0.0162384 0.0289682 0.1504 -0.0224838 -0.0156521 0.0122127 0.079795 0.105004 0.0453183 0.0671585 -0.10713 -0.0642058 0.0829195 0.00745151 -0.0814889 -0.0236516 -0.0378265 0.298931 0.405954 -0.138667 0.126152 0.365851 -0.103242 -0.0872203 -0.33801 0.494018 0.538138 -0.423898 0.0466511 -0.273513 -0.368333 0.106024 0.208145 0.0529359 -0.659649 -0.234793 -0.295102 0.186336 -0.0957503 0.129033 -0.578075 -0.0654539 -0.0291956 0.321295 -0.150031 -0.271444 0.445663 -0.0879731 0.117554 0.271791 0.365106 0.267138 -0.00915523 -0.167017 0.213389 -0.517271 0.0204172 -0.00434738 0.102028 0.0577692 0.000598474 -0.454025 -0.288678 0.0141223 -0.213065 0.378533 0.954661 0.178647 -0.093072 0.0697334 0.793808 -0.811518 0.246003 -0.0978537
24 -0.0382793 -0.0199566 -0.0818511 -0.0528354 0.0327505 0.111662 -0.0272102 -0.0831788 0.0221506 -0.0226272 -0.0426848 0.0484229 0.0931364 0.0569792 -0.0511395 -0.0325207 -0.0194361 -0.0434874 -0.0107426 0.00597545 -0.0401083 -0.0998135 0.115944 0.128435 0.144036 0.0251861 0.138922 0.0618079 -0.0978652 -0.0338071 -0.106522 0.144541 0.0773331 0.0262418 -0.0850946 -0.0480022 0.0135319 0.090247 -0.0210628 0.0332027 0.0584565 -0.00935223 -0.0916389 0.0533575 -0.0261938 0.0110229 -0.0221547 -0.00226987 -0.0798372 0.104852 -0.175941 0.15173 -0.0626308 0.0506966 0.0113769 -0.011323 0.202397 -0.0668526 0.101702 0.141154 0.161116 0.297829 0.0807143 0.124284 -0.0702702 -0.0553554 0.110422 0.0939771 -0.152687 -0.0643204 -0.05138 0.326324 0.474859 -0.104767 0.258619 0.593343 -0.0409383 -0.079764 -0.266718 0.374373 0.43585 -0.40447 0.118429 -0.379789 -0.450682 0.169426 0.192314 0.0281664 -0.422648 -0.186828 -0.312922 0.226184 -0.176622 0.192095 -0.684424 -0.0761111 -0.0292313 0.309676 -0.284817 -0.290375 0.628832 -0.189804 0.174618 0.518961 0.261036 0.227352 0.00253507 -0.25984 0.271585 -0.626738 0.15876 0.0114144 0.168706 0.00834588 -0.020629 -0.473482 -0.184409 0.0225826 -0.188432 0.287719 0.768371 0.179842 -0.108399 0.0919804 0.648418 -0.574069 0.20563 -0.0953643
8 0.0289428 -0.0234748 -0.0725779 -0.10295 0.0570803 -0.0316232 0.0461153 0.0344834 0.0249016 0.0311439 0.0295914 0.0390641 -0.0455662 0.0105348 -0.00944565 0.00202016 0.0910706 0.00837455 0.048999 -0.0195499 -0.0570228 -0.0541502 -0.00692862 0.0123406 0.149731 0.015579 0.0815549 0.0709218 -0.0399553 -0.00721787 -0.0222682 0.0521505 0.0457515 0.0429782 -0.0352262 0.0316527 0.0919639 0.00878461 -0.0205202 0.0451605 -0.046876 -0.022158 0.0419335 0.0761677 0.0516717 -0.00159139 -0.0525892 0.0664602 -0.000909154 -0.159196 -0.104262 0.107872 -0.0941463 -0.0239374 0.135421 -0.000504173 0.41986 -0.085136 0.105071 0.108214 0.188528 0.306071 0.162703 0.107308 -0.120832 -0.0692221 0.0986579 0.0532692 -0.24861 -0.0864522 -0.0258029 0.149356 0.374616 -0.0517425 0.119183 0.334387 -0.0336261 -0.0492177 -0.332421 0.46888 0.33239 -0.339757 0.181092 -0.385144 -0.261498 0.0426262 0.168188 0.0119735 -0.769331 -0.399744 -0.297346 0.157883 -0.200301 0.223692 -0.676561 0.0373139 0.0334224 0.29084 -0.236428 -0.279011 0.350826 -0.137564 0.0962846 0.313155 0.227207 0.165557 0.0288941 -0.163929 0.28945 -0.634904 0.220114 0.0585345 0.165428 0.0789873 -0.0351349 -0.448651 -0.178594 0.0119892 -0.19263 0.30579 0.986062 0.155871 -0.0586081 0.0728786 0.814026 -0.724911 0.207621 -0.122311
23 -0.0855871 -0.0265005 0.0193223 0.0420753 0.108956 -0.0838695 0.0402749 -0.0330013 0.0838207 0.0270556 0.0401331 0.081947 -0.0716025 0.025502 0.0372293 0.000178637 0.105042 0.0485704 0.0610417 -0.0139646 -0.0621415 -0.0551092 -0.0660778 0.00777557 0.110516 0.00898383 0.0673558 0.0617052 -0.0703717 -0.0391744 -0.0332781 0.103205 0.122024 0.0415632 0.0239867 0.12423 0.0731175 -0.00505696 -0.0362579 0.0995655 0.0294013 -0.00849853 -0.0236961 0.0239377 -0.000682882 -0.00953561 -0.054034 -0.0239954 0.020468 -0.202486 -0.137029 0.0946594 -0.0554683 0.00156545 0.126945 0.0520177 0.272234 -0.0806282 0.0884966 0.0733464 0.185476 0.35728 0.115312 0.145077 -0.16261 -0.106264 0.112524 0.0303821 -0.182778 -0.0790035 -0.0143463 0.212691 0.432404 -0.0961308 0.198999 0.464939 -0.102402 -0.0731068 -0.221116 0.343622 0.437159 -0.418516 0.12744 -0.330689 -0.374817 0.15601 0.193742 0.00992242 -0.734184 -0.309926 -0.318014 0.175342 -0.201653 0.217441 -0.58696 -0.0218219 0.0250877 0.27421 -0.220745 -0.26296 0.406231 -0.142936 0.164438 0.466178 0.207353 0.144282 -0.0159815 -0.203897 0.263703 -0.592685 0.142087 0.0376773 0.235254 0.0455312 -0.0337263 -0.664748 -0.211835 0.00579549 -0.182075 0.24818 0.926574 0.181105 -0.0551891 0.0582704 0.656115 -0.615112 0.151783 -0.0843598
36 -0.0180355 0.00650278 -0.0124209 -0.00187975 0.0227392 0.029262 -0.0113238 -0.0117093 0.000357893 0.000700736 -0.0184591 0.0113809 0.0042192 0.00633815 0.0018922 0.00779819 0.0198248 0.0513492 -0.0195403 -0.00187968 0.00613183 -0.0024211 -0.017802 0.0383253 0.0425651 0.0245539 0.0801733 0.00908552 -0.0414529 -0.0476301 -0.0399025 0.0397033 -0.0197438 0.00177381 0.0146792 0.050447 -0.00384492 0.00764253 0.00964083 -0.0505711 -0.0105374 -0.00134145 -0.0839494 -0.0181732 -0.0738841 -0.0544152 -0.0665987 -0.0529974 0.0440273 -0.120471 -0.135516 0.073744 -0.0143281 0.00988878 0.00361126 0.0209823 0.202526 -0.0552478 0.0129022 0.0506133 0.104316 0.212857 0.0939835 0.11102 -0.108899 -0.0723268 0.0272008 -0.00734446 -0.157836 -0.0633875 -0.0498672 0.260931 0.42572 -0.122055 0.143044 0.367293 -0.0934069 -0.0567373 -0.297993 0.44667 0.406909 -0.36674 0.0840879 -0.253347 -0.317462 0.0980457 0.21302 0.0342314 -0.795401 -0.307174 -0.2367 0.142506 -0.12321 0.114573 -0.460492 -0.0292791 -0.0195489 0.264692 -0.16196 -0.190841 0.278967 -0.0754597 0.137178 0.297251 0.323578 0.217637 -0.0275725 -0.166845 0.250103 -0.580993 0.0707698 0.0221676 0.155283 0.0557927 -0.0362383 -0.502163 -0.195162 0.00502962 -0.165405 0.296366 0.963287 0.167155 -0.0802536 0.0670435 0.858235 -0.851948 0.2258 -0.0963184
33 -0.0456919 -0.0347581 0.0552862 0.0193132 -0.000415447 0.0584607 -0.0308422 -0.00331427 0.0194858 -0.0136275 -0.00621494 -0.0345499 -0.0391016 -0.0403951 0.0824638 0.209472 -0.0826117 -0.0958017 -0.0728044 0.00363989 0.0288806 -0.0344386 0.0964615 0.0112688 0.191469 0.0446658 0.127078 0.0146991 -0.0382067 0.00814212 -0.0787806 -0.00715146 -0.11077 -0.0309591 -0.140403 -0.192989 -0.0118868 0.0359496 0.0441146 -0.0433092 -0.025356 -0.0425019 -0.0355215 0.0437005 -0.00141567 0.0116367 -0.0103328 0.0419603 0.0154824 -0.0603919 -0.145248 0.0608947 -0.0780782 0.0836214 0.0192988 0.0365199 0.223564 -0.0283654 0.0204298 0.0375581 0.0930248 0.143239 0.0806792 0.0988256 -0.123389 -0.0669218 0.127372 0.0122592 -0.142379 -0.0448787 -0.0362971 0.290468 0.367634 -0.110517 0.105572 0.370122 -0.0845097 -0.0974951 -0.292909 0.383262 0.476581 -0.371314 0.0793861 -0.284721 -0.320491 0.0449228 0.214747 0.0220989 -0.745814 -0.292897 -0.409577 0.223237 -0.183226 0.199719 -0.652284 -0.0738799 -0.0309426 0.34218 -0.136086 -0.249069 0.477448 -0.0986803 0.0881157 0.234792 0.293134 0.225706 -0.00652839 -0.129054 0.182478 -0.449246 0.0532839 -0.0336432 0.0605487 0.0665398 -0.00773072 -0.494485 -0.285605 0.0203417 -0.173614 0.362171 0.879952 0.131251 -0.117372 0.0814103 0.801742 -0.786876 0.285919 -0.0987765
21 -0.105358 -0.0460239 0.00999885 0.0336566 0.0342396 0.085442 -0.0422103 -0.0793621 0.0515459 -0.0328988 -0.0274625 0.0438724 0.0473135 0.0368726 0.0272025 0.115611 -0.0119288 -0.0229874 -0.0315781 0.0361278 -0.00475475 -0.0673484 0.0975544 0.0939675 0.15043 0.0285098 0.215886 0.0472716 -0.0970113 -0.0368761 -0.104559 0.0862657 -0.0230574 -0.0179601 -0.110272 -0.105847 0.00525781 0.131253 0.0341687 -0.0772719 0.0423296 -0.0250808 -0.189992 0.0430903 -0.0979312 -0.0130823 -0.0553087 -0.032823 -0.0292282 0.0184246 -0.235213 0.159928 -0.0628458 0.0966857 0.0208807 0.0207516 0.266 -0.0799674 0.0549972 0.0968898 0.158253 0.297399 0.0741152 0.140817 -0.109093 -0.0695661 0.118362 0.063477 -0.108007 -0.0306816 -0.0242732 0.304037 0.432792 -0.140692 0.201988 0.484195 -0.0625956 -0.0827376 -0.241005 0.340989 0.404259 -0.346574 0.0869788 -0.359288 -0.496962 0.180533 0.246484 0.039644 -0.601957 -0.226505 -0.337978 0.22574 -0.188667 0.184789 -0.681161 -0.0937108 -0.0424372 0.328428 -0.278623 -0.336827 0.565531 -0.148018 0.158393 0.479163 0.32248 0.281888 -0.0275542 -0.282466 0.299172 -0.699214 0.116168 -0.00528627 0.153827 0.0215421 -0.0245626 -0.56074 -0.19362 0.0379055 -0.186241 0.310828 0.858225 0.169021 -0.134574 0.100806 0.691978 -0.641909 0.228172 -0.0791192
19 0.101299 0.0194945 -0.0219893 -0.0376937 -0.0278854 -0.0141994 0.0185969 0.0505804 -0.0455387 0.0153621 -0.000925223 -0.0221814 -0.0755901 -0.024824 0.00044105 -0.0498844 -0.0666859 -0.0881534 0.0264754 -0.0159041 -0.028938 0.0023656 -0.00800719 -0.00349804 -0.061816 0.0119425 0.00606643 -0.00687863 0.00160996 -0.0377413 -0.0714766 0.138812 0.0716282 0.0582196 0.0895644 0.107087 0.0176785 -0.0788277 -0.00732244 -0.0278218 -0.031237 0.00364794 0.0167052 -0.0344239 -0.0575013 -0.0721044 -0.000616834 0.00415255 0.0198775 -0.0849895 -0.13156 0.0946676 -0.00142335 -2.09699e-05 0.0224175 0.0178081 -0.0482453 0.00824898 0.0264426 -0.00549032 0.151437 0.209777 0.0887852 0.0675588 -0.130474 -0.0996473 0.0446157 -0.00286588 -0.15789 -0.0754468 -0.051796 0.226188 0.34752 -0.0831535 0.156972 0.468578 -0.151352 -0.0883738 -0.431775 0.641156 0.438189 -0.366855 0.0948338 -0.334442 -0.334126 0.103563 0.214011 0.0346269 -0.615362 -0.281558 -0.355949 0.221339 -0.1153 0.164454 -0.651125 -0.000499329 0.0274533 0.419558 -0.219124 -0.33426 0.384912 -0.100499 0.17691 0.390051 0.364375 0.208838 0.025975 -0.227919 0.308611 -0.74181 0.108248 0.0672102 0.188327 0.0612889 -0.00742881 -0.386958 -0.255716 -0.0101935 -0.236782 0.380103 0.773979 0.150241 -0.00952986 0.0301787 0.631615 -0.656341 0.0881806 -0.077133
18 0.154169 0.054538 -0.125835 -0.145183 -0.138884 0.11641 -0.0382074 0.0569206 0.0136149 0.0402575 0.0147201 -0.0267089 -0.154983 -0.0686181 0.074483 0.102953 -0.22127 -0.249729 -0.065409 -0.0216185 0.0180769 -0.0295134 0.0365979 0.0363156 0.0293571 0.0438194 0.0800958 -0.0478582 0.00683539 -0.016207 -0.107282 0.102755 -0.0747504 -0.01166 -0.0449326 -0.0289094 -0.0128833 0.0884111 0.0549011 -0.158231 -0.0564836 -0.0179148 -0.115824 -0.0494032 -0.11484 -0.0569179 0.017627 -0.00538698 0.0475322 -0.0783732 -0.20355 0.112193 -0.0664957 0.104434 0.0229625 0.0749534 0.0586615 -0.0327147 0.0277054 0.0466967 0.147501 0.217683 0.0868032 0.0937597 -0.134913 -0.104289 0.0629918 -0.00496408 -0.147815 -0.0570258 -0.0768584 0.30435 0.436088 -0.123847 0.112609 0.37223 -0.131896 -0.0711078 -0.289354 0.388488 0.496111 -0.395171 0.0506096 -0.266355 -0.322314 0.094011 0.23709 0.0742306 -0.615608 -0.217205 -0.343751 0.200763 -0.108181 0.128907 -0.56611 -0.0323267 -0.0309029 0.304644 -0.134991 -0.232478 0.289371 -0.0669976 0.181799 0.351032 0.364938 0.188072 -0.0134299 -0.201067 0.281458 -0.67074 0.0554671 0.0376164 0.192113 0.061804 -0.00777355 -0.583544 -0.320857 -0.0168672 -0.256832 0.438035 0.893955 0.140095 -0.0846605 0.0540725 0.787322 -0.821185 0.199607 -0.0934906
26 0.105852 0.0554524 0.00649315 0.00467975 -0.0442264 -0.0248233 0.00631474 0.0553356 -0.0421509 -0.00490374 -0.0140518 -0.0430172 -0.0424878 -0.0295352 0.00405811 -0.0469592 -0.0321985 0.000896686 0.00210039 -0.00982601 0.00373476 0.0361691 -0.0147973 -0.00197437 -0.110409 0.00698793 0.0177275 -0.0472628 0.0230435 -0.0526031 -0.0530544 0.0799686 -0.0138263 0.0302569 0.0766504 0.0505921 -0.0200985 -0.0665084 0.0159436 -0.0975384 -0.0398498 0.0124161 0.00690488 -0.0968328 -0.085624 -0.0840138 0.0405464 -0.0296153 0.0714052 -0.0462561 -0.118464 0.0455421 0.0557715 -0.000897557 -0.0302199 0.0350913 -0.139532 0.0306629 -0.0348587 -0.0579546 0.0915921 0.138726 0.0544138 0.0490542 -0.167716 -0.122186 0.0279041 -0.0559307 -0.100426 -0.0584623 -0.0474881 0.228205 0.304103 -0.0907984 0.152918 0.448255 -0.190057 -0.091276 -0.394781 0.611255 0.437748 -0.350811 0.0594906 -0.290455 -0.334751 0.111735 0.22897 0.0460603 -0.68263 -0.260649 -0.374013 0.229962 -0.117447 0.168648 -0.678987 -0.0349874 0.0080217 0.419304 -0.18271 -0.348357 0.328381 -0.0544559 0.198734 0.326134 0.411665 0.214647 0.001287 -0.20639 0.306764 -0.752689 0.0175952 0.0681925 0.189033 0.0677923 -0.00717329 -0.400818 -0.261505 -0.0251697 -0.212408 0.363898 0.803625 0.154815 0.00356986 0.0108728 0.632431 -0.701782 0.0624857 -0.0578338
15 0.128635 0.0108412 -0.13572 -0.201646 -0.159368 0.158479 -0.0174399 0.0525349 -0.0348008 0.021894 0.0277805 -0.0155039 -0.0791186 -0.0244818 0.0437279 0.135154 -0.0893627 -0.194217 -0.00195128 0.030174 0.0264557 0.0320572 0.00872932 -0.102435 0.0930738 0.0123375 0.16994 0.00743011 0.00284538 0.0196183 -0.107889 0.0853017 -0.0638175 0.0108291 -0.0375573 -0.0508107 0.053887 0.105622 0.0905685 -0.205825 -0.0653573 -0.0340968 -0.00125153 -0.0075897 -0.0651185 -0.0169373 0.0487468 0.074727 0.0264456 0.0693002 -0.160299 0.118765 -0.0854251 0.106579 0.0750863 0.0489989 0.18439 -0.0431227 0.0710884 0.0158394 0.203522 0.276922 0.116687 0.107531 -0.161055 -0.119162 0.157819 0.00444582 -0.129118 -0.0311924 -0.0234704 0.27193 0.414375 -0.119898 0.0864739 0.427152 -0.154259 -0.0963759 -0.37277 0.498718 0.504538 -0.396049 0.120374 -0.481829 -0.374406 0.0859449 0.235133 0.0679762 -0.64857 -0.259321 -0.287496 0.137288 -0.120785 0.146154 -0.569598 -0.023115 -0.0218083 0.224737 -0.0713357 -0.231135 0.307861 -0.0664859 0.136413 0.331422 0.386569 0.219128 0.01896 -0.18774 0.304615 -0.724346 0.114774 0.0467355 0.186888 0.0873415 0.00977851 -0.621881 -0.339466 -0.00801811 -0.216102 0.392225 0.895144 0.112357 -0.0886067 0.0612882 0.716763 -0.72883 0.176438 -0.10151
16 0.137403 0.0208131 -0.0953836 -0.145355 -0.214775 0.144167 -0.038832 0.0609314 -0.011897 0.0402784 0.0439985 -0.0346535 -0.175017 -0.0715998 0.107476 0.161245 -0.227665 -0.293503 -0.0470213 0.000768462 0.0376811 0.0219458 -0.00921513 -0.0789671 -0.00623992 0.0274975 0.0545688 -0.0541931 0.0322446 0.0162099 -0.0831456 0.0840744 -0.0628805 0.00161009 -0.00218588 0.0132556 0.00197453 0.0918943 0.0709383 -0.186387 -0.0658096 -0.0285053 -0.055246 -0.0545452 -0.0880255 -0.0343575 0.0534828 0.0218909 0.0497115 -0.0435063 -0.19366 0.103097 -0.090039 0.129941 0.0911107 0.120094 0.175065 -0.047605 0.0571565 0.00419805 0.21856 0.304964 0.129261 0.134644 -0.201266 -0.143689 0.12609 -0.00519499 -0.138299 -0.0499585 -0.03821 0.283319 0.41013 -0.121747 0.0638949 0.319403 -0.16542 -0.0853417 -0.304259 0.411425 0.466746 -0.353821 0.0401122 -0.253299 -0.252711 0.0711488 0.206964 0.0708999 -0.564567 -0.205887 -0.331688 0.169272 -0.0705891 0.108479 -0.538858 -0.0182163 -0.00586499 0.316237 -0.0817269 -0.226573 0.217434 -0.0472775 0.146327 0.302068 0.345167 0.169294 0.00799124 -0.185012 0.262005 -0.631625 0.0402423 0.0487894 0.198631 0.0697341 0.0132148 -0.65297 -0.402623 -0.0176355 -0.285486 0.481216 0.932122 0.126495 -0.0711232 0.048804 0.73749 -0.771734 0.168176 -0.0969508
3 0.2367 0.147553 -0.187888 -0.176794 -0.15016 0.0195583 -0.0114804 0.0856301 0.0141417 0.0560455 0.0688538 -0.0132707 -0.137858 -0.0826545 0.0437957 -0.0472072 -0.269892 -0.299168 -0.0832296 -0.086475 0.0131686 0.0176968 0.0455998 0.0983003 -0.0822797 0.018496 -0.0617068 -0.0825732 0.0526972 -0.0592855 -0.0392534 0.135562 0.0343587 0.047354 0.0185781 -0.068201 -0.12313 0.116484 -0.0060509 -0.138399 -0.0204188 0.0290779 0.0443233 -0.157028 -0.0485448 -0.0625318 0.11683 -0.0272189 0.079566 0.134681 -0.122031 0.0118369 -0.0018915 0.0340279 -0.0479391 0.0653747 0.00585997 -0.0264324 0.0496706 -0.0116298 0.215567 0.363753 0.150363 0.152922 -0.296805 -0.233743 0.0717219 -0.0499783 -0.113226 -0.0718057 -0.0634181 0.329447 0.430317 -0.0833066 0.212629 0.555041 -0.222978 -0.0926103 -0.315642 0.498894 0.559035 -0.480589 0.0903475 -0.318533 -0.314445 0.131458 0.192164 0.0736148 -0.607199 -0.198189 -0.468378 0.267605 -0.0859262 0.16638 -0.582347 -0.0564999 -0.01534 0.291323 -0.0844223 -0.239553 0.363607 -0.0589272 0.239674 0.399385 0.32485 0.12296 -0.00460771 -0.156356 0.229974 -0.588451 -0.0334599 0.0981556 0.282691 0.0669925 -0.00525128 -0.658969 -0.380264 -0.0713763 -0.218097 0.350223 0.968552 0.183959 -0.0198251 0.0205402 0.734199 -0.788537 0.111682 -0.118195
17 0.197307 0.0797887 -0.138762 -0.149925 -0.0554553 -0.0341854 -0.0043634 0.0614008 0.0595733 0.0436866 0.0910011 0.00883703 -0.133912 -0.0844623 0.0572835 0.0373209 -0.243333 -0.304045 -0.0654179 -0.0714199 -0.0185692 -0.0632311 0.13564 0.121912 -0.0128445 0.0170037 -0.0542718 -0.046077 0.0561161 -0.0134038 -0.0144935 0.09229 0.0250265 0.054419 -0.0461047 -0.128549 -0.102573 0.159823 -0.00908566 -0.122623 -0.0345041 -0.00811232 -0.0204623 -0.0709282 -0.0196997 -0.0650087 0.0803649 0.0248489 0.0400237 0.10532 -0.171728 0.0754643 -0.0621785 0.0286199 0.0153648 0.0543421 0.195043 -0.0426947 0.0876095 0.0308692 0.265515 0.397551 0.167473 0.138397 -0.276744 -0.209764 0.126653 -0.0063268 -0.199161 -0.0808141 -0.0501673 0.34552 0.449268 -0.0721415 0.20389 0.542653 -0.188587 -0.109675 -0.434762 0.635098 0.564418 -0.504796 0.129026 -0.365191 -0.296627 0.100427 0.19688 0.0626239 -0.614734 -0.266753 -0.522569 0.297129 -0.124064 0.23428 -0.672861 -0.0324257 0.0185747 0.336757 -0.178854 -0.352409 0.565097 -0.130967 0.21299 0.399595 0.338399 0.157299 0.0376855 -0.199806 0.289456 -0.707263 0.0404258 0.105005 0.26737 0.0832005 -0.00613217 -0.597562 -0.416185 -0.0578999 -0.260066 0.426035 0.936262 0.161008 -0.00752257 0.029246 0.679983 -0.682602 0.104239 -0.111093
14 0.171153 0.0858695 -0.197801 -0.188351 -0.139709 0.0941716 0.0025241 0.0434979 -0.00201374 0.00839737 0.0156398 0.00474778 -0.0258963 -0.0182644 -0.01326 -0.0659827 -0.0976953 -0.153827 -0.00722675 -0.0164255 -0.00135956 -0.000249081 0.047089 0.070041 -0.048856 0.00749996 0.093819 -0.0324101 -0.0246488 -0.0641712 -0.105797 0.188401 0.0470259 0.0558173 0.0138819 -0.0474297 -0.0100054 0.0645992 0.013498 -0.128753 -0.0135202 0.0221445 -0.00977985 -0.0954027 -0.0819464 -0.0532301 0.0724569 -0.00415338 0.0571906 0.108533 -0.218167 0.127693 -0.00669972 0.0562086 0.0174944 0.0403723 0.0782639 -0.0413179 0.0579448 -0.00515265 0.192397 0.311604 0.129908 0.138422 -0.261391 -0.187504 0.119486 0.00259766 -0.102215 -0.0479489 -0.0172585 0.222088 0.347051 -0.0926514 0.170435 0.459761 -0.192849 -0.0796641 -0.328614 0.504203 0.526855 -0.448885 0.127191 -0.515675 -0.434278 0.181282 0.247597 0.0807872 -0.699852 -0.264574 -0.353501 0.214598 -0.118465 0.168709 -0.5611 -0.0362785 -0.0153512 0.215446 -0.120424 -0.298709 0.316294 -0.0499965 0.18801 0.346762 0.380554 0.196737 0.00132486 -0.180869 0.264099 -0.641655 0.0393347 0.0965814 0.264666 0.0718361 -0.00921408 -0.651321 -0.290757 -0.0389584 -0.214872 0.329569 0.888434 0.166972 -0.0268594 0.0290798 0.666498 -0.707832 0.0873764 -0.0984927
28 0.184456 0.118992 -0.126756 -0.118528 -0.140886 0.072278 0.00684113 0.0483949 -0.050954 -0.00751895 0.0101704 -0.0351113 -0.0565063 -0.0357599 0.030306 -0.0267 -0.140769 -0.156397 -0.0499845 -0.0708713 0.00166746 0.00856055 0.0557433 0.0900388 0.0314064 0.0572403 0.0493405 -0.0206831 -0.0752095 -0.110776 -0.114111 0.180635 0.0903314 0.0641658 -0.0334136 -0.133588 -0.0624503 -0.0470203 -0.0383241 0.0243998 -0.0163842 0.00758702 0.0705114 -0.087456 0.00348821 -0.0344391 0.0336144 -0.0195104 0.0437091 -0.0971831 -0.101148 0.033384 0.00659619 0.00386451 0.0244548 0.0749978 0.120911 -0.0299033 0.053169 0.00776322 0.150061 0.274759 0.136357 0.146635 -0.248467 -0.167123 0.0578928 -0.0152869 -0.129816 -0.0935085 -0.0471536 0.189443 0.342977 -0.0782737 0.18093 0.470293 -0.129303 -0.0726083 -0.315002 0.491603 0.513814 -0.440111 0.0921425 -0.297901 -0.408232 0.130403 0.209594 0.0324789 -0.804268 -0.335233 -0.512035 0.311008 -0.179821 0.260132 -0.861831 -0.0420707 0.00423305 0.497313 -0.184795 -0.269169 0.364537 -0.0667294 0.163129 0.349537 0.21559 0.152238 0.0118577 -0.13513 0.168047 -0.420104 0.0172722 0.0484268 0.149686 0.0364299 -0.0152647 -0.332437 -0.266106 -0.0102714 -0.209682 0.34209 0.929188 0.206868 -0.0394303 0.0391952 0.716311 -0.759675 0.153019 -0.0956254
29 0.162449 0.104676 -0.115156 -0.11641 -0.101798 0.0369368 -0.0120007 0.085162 -0.0357187 0.0327014 0.00219833 -0.0294759 -0.0870627 -0.0522485 0.0197291 -0.0362923 -0.143523 -0.126137 -0.0483696 -0.026812 0.0286446 0.0535567 -0.0377758 0.0335339 -0.0810911 0.0228206 0.0350053 -0.0499544 0.0198901 -0.071661 -0.0589066 0.106126 -0.0264196 0.0254911 0.0553464 0.0143406 -0.0690747 0.0205088 0.016236 -0.130315 -0.030148 0.0331798 0.0333411 -0.119802 -0.0827874 -0.0741344 0.0551952 -0.0350023 0.0659361 0.0843719 -0.0638423 -0.000403257 0.0249947 0.00945409 -0.0620984 0.0288348 -0.0485173 -0.0108966 0.00207651 -0.0157082 0.153601 0.27352 0.110668 0.106853 -0.188061 -0.146579 0.00552586 -0.0552858 -0.142749 -0.0652809 -0.058962 0.248956 0.34807 -0.0890609 0.160593 0.461729 -0.187844 -0.070704 -0.301271 0.466631 0.386075 -0.325684 0.0805311 -0.290244 -0.359858 0.118542 0.262751 0.055539 -0.8069 -0.296678 -0.483257 0.283086 -0.164761 0.20204 -0.783455 -0.0513995 -0.0195059 0.410494 -0.191054 -0.321962 0.308094 -0.0574975 0.190789 0.324387 0.365369 0.175989 -0.013264 -0.172937 0.257478 -0.631995 0.0124164 0.0697823 0.194631 0.0643575 -0.0197294 -0.44346 -0.250473 -0.0371387 -0.167717 0.306065 0.78533 0.132839 -0.0202081 0.0205198 0.678799 -0.731646 0.107777 -0.0774146
10 -0.113353 -0.015077 0.0234305 0.0933638 0.223147 -0.122832 -0.0113316 -0.0881229 0.137513 0.021381 0.0274397 0.094786 0.0329029 0.0333665 -0.0215276 -0.0640593 0.00212912 0.0227019 -0.0341679 -0.0497472 -0.0535806 -0.120004 0.0826623 0.208107 0.0949573 0.0103978 0.00641567 0.0204383 -0.0345146 -0.0315136 0.0225691 0.0267995 0.0441853 0.000859857 -0.111014 -0.0712699 -0.067939 0.233766 -0.0203742 -0.0618207 0.0416693 -0.0376183 -0.21299 0.00798209 -0.0801726 -0.0723994 -0.0923116 -0.0760152 0.00991331 -0.108784 -0.241576 0.132866 -0.055486 0.0387364 -0.00411358 0.0288874 0.334691 -0.105629 0.0742841 0.156344 0.198547 0.391851 0.120464 0.163763 -0.130476 -0.105828 0.0891527 0.0364679 -0.154565 -0.0648514 -0.0811904 0.428962 0.601487 -0.121785 0.305605 0.626358 -0.0733752 -0.0818516 -0.226335 0.35551 0.4608 -0.45574 0.105129 -0.26011 -0.37589 0.161042 0.153652 0.0402978 -0.440335 -0.156123 -0.315366 0.213104 -0.141449 0.167035 -0.513244 -0.0787359 -0.0383201 0.226118 -0.267224 -0.289867 0.638914 -0.191597 0.236853 0.558262 0.297235 0.201393 -0.029887 -0.248971 0.319276 -0.733642 0.111521 0.0338477 0.269616 0.0291528 -0.0399795 -0.667436 -0.238393 -0.0121992 -0.198378 0.280646 1.08043 0.239807 -0.11563 0.0922105 0.835616 -0.750792 0.250737 -0.127536
35 -0.207576 -0.0947632 0.203496 0.223453 0.169882 -0.139322 -0.00262037 -0.0972188 0.0619815 -0.0530049 0.0331488 0.0252058 0.00114178 -0.00615797 0.0889218 0.157129 -0.0256843 -0.0114154 -0.0238199 0.000410868 -0.00322211 -0.0610571 0.127131 0.0620318 0.0610471 0.00408691 -0.00370002 0.0545392 -0.0735507 -0.0232606 -0.0327767 0.0624938 0.158739 0.047535 0.0565485 0.0074171 -0.0610283 -0.0591467 -0.0513046 0.134967 0.082876 -0.0105335 -0.0346439 0.0276652 0.0478707 0.0352801 -0.0187139 -0.040418 -0.0405745 0.0146818 -0.166573 0.0915231 -0.0513613 0.0208856 0.0702722 0.0490873 0.395266 -0.0666625 0.0808729 0.0105962 0.139608 0.219233 0.102646 0.159267 -0.20735 -0.123815 0.150913 0.0562995 -0.151114 -0.0778848 0.0264124 0.338065 0.306397 -0.0828158 0.139695 0.296991 -0.08623 -0.102484 -0.327467 0.506843 0.472841 -0.39703 0.0670483 -0.225315 -0.213889 0.10456 0.063668 -0.0206704 -0.371359 -0.167502 -0.311748 0.183991 -0.085596 0.162339 -0.412828 -0.0815193 0.0452055 0.350802 -0.2042 -0.278621 0.673399 -0.158328 0.0440475 0.272544 0.173182 0.234539 0.0188887 -0.246819 0.198872 -0.528646 0.0575122 -0.00760384 0.125871 0.019203 -0.000997764 -0.532689 -0.334536 0.0405149 -0.254014 0.397717 1.04028 0.228271 -0.0690239 0.10354 0.789776 -0.732066 0.205661 -0.103685
11 -0.0478892 -0.0869268 0.127025 0.0822655 0.0907584 -0.158813 0.0153616 0.040973 0.119395 0.107976 0.10123 0.0315964 -0.310214 -0.0829355 0.158609 0.189099 -0.150672 -0.228697 0.000980244 -0.0279317 -0.0391743 -0.0623197 -0.102961 -0.0904116 0.000342561 0.000679805 -0.105029 -0.0109361 0.0893355 0.0771946 0.0316614 -0.00870766 -0.0256731 -0.011449 0.0492243 0.204321 0.0419649 0.0952242 0.0276612 -0.0584535 -0.0552644 -0.0380171 -0.0516124 0.0123754 -0.0309601 -0.0245222 -0.00260657 0.0246273 0.0203508 -0.172608 -0.0972253 0.0608288 -0.140787 0.0697846 0.1555 0.104607 0.31256 -0.0821284 0.0972495 0.0795532 0.238878 0.3582 0.162547 0.143204 -0.151716 -0.106142 0.0951395 0.0238136 -0.27497 -0.0852974 -0.0563122 0.360516 0.481768 -0.101127 0.100179 0.342298 -0.128305 -0.0728425 -0.254198 0.344704 0.452741 -0.391369 0.0651775 -0.135244 -0.103523 0.0331894 0.151802 0.0278477 -0.493389 -0.213386 -0.286494 0.126582 -0.106897 0.125598 -0.519157 0.0132159 0.0383007 0.312183 -0.17325 -0.241897 0.226559 -0.120628 0.0960603 0.267623 0.223188 0.0864308 -0.000891244 -0.195138 0.259298 -0.59914 0.126937 0.0425856 0.22526 0.0714302 -0.0049361 -0.737781 -0.376432 -0.0162486 -0.294823 0.45325 1.00478 0.129665 -0.0542082 0.0605925 0.84203 -0.798791 0.207257 -0.115878
7 -0.106157 -0.0380751 0.165026 0.177178 0.124072 -0.135002 0.025444 -0.0280591 0.0540769 0.0113178 0.0527795 0.031045 -0.224891 -0.0508199 0.142138 0.162758 -0.0209044 -0.0454746 0.0335435 -0.0158047 -0.0312842 -0.0469437 -0.0183069 -0.0135638 0.0388861 0.0230242 0.0779875 0.0496635 -0.0992375 -0.0586708 -0.073463 0.122048 0.114558 0.0249062 0.108842 0.212854 0.038296 -0.118354 -0.0157668 0.0659504 0.0402702 -0.0155282 -0.100503 0.00146766 -0.0633602 -0.0314862 -0.0926547 -0.0882435 0.018256 -0.302149 -0.178247 0.120125 -0.0455302 0.0296749 0.112096 0.0817744 0.159092 -0.04777 0.0517101 0.024276 0.109181 0.206818 0.0547518 0.122557 -0.11351 -0.0775276 0.0775662 0.0254993 -0.201217 -0.111235 -0.0247743 0.345213 0.465623 -0.140354 0.176808 0.449385 -0.11771 -0.0898662 -0.320143 0.491272 0.445011 -0.381434 0.0609237 -0.219232 -0.259066 0.12569 0.153214 -0.0021553 -0.555911 -0.219844 -0.168618 0.0999724 -0.0873295 0.0935152 -0.325095 -0.0301825 0.0277799 0.306378 -0.188879 -0.189779 0.406249 -0.130129 0.151937 0.458345 0.232839 0.203819 -0.0217463 -0.271495 0.281709 -0.670388 0.133662 0.00920422 0.187118 0.0158407 -0.0233548 -0.610987 -0.23099 0.0349878 -0.241423 0.372142 0.945791 0.205006 -0.0745434 0.0755524 0.741173 -0.732718 0.166373 -0.0753447
9 -0.126206 -0.0176853 0.0935826 0.151503 0.268299 -0.239341 0.00494353 -0.046264 0.162216 0.0574857 0.0997602 0.0914974 -0.145481 -0.0305785 0.0715545 0.0281976 -0.053953 -0.0189806 -0.0556567 -0.0739498 -0.0383855 -0.109575 0.0359964 0.192488 0.0965222 0.0224144 -0.0328828 0.0297325 -0.0143132 -0.0421256 0.0385966 0.0148785 0.070906 0.00177846 -0.0101585 0.0502743 -0.09728 0.162868 -0.0410606 0.00115469 0.0346582 -0.00403471 -0.166579 -0.0184163 -0.0598474 -0.0776792 -0.0777739 -0.094124 0.0341906 -0.121392 -0.170272 0.0715952 -0.0449337 -0.00645347 0.000866923 0.0516303 0.326279 -0.0971736 0.0832963 0.137794 0.210946 0.418963 0.130302 0.16001 -0.122246 -0.104922 0.0447479 -0.00793407 -0.177932 -0.0737533 -0.0740543 0.366186 0.473024 -0.0804936 0.219715 0.417303 -0.0683344 -0.0407078 -0.193512 0.31405 0.347924 -0.368825 0.0963364 -0.141587 -0.238978 0.119555 0.0913762 0.0232367 -0.345958 -0.1093 -0.320976 0.185624 -0.130518 0.167045 -0.45066 -0.0569837 -0.00724847 0.229091 -0.277233 -0.282609 0.626874 -0.199537 0.217381 0.524062 0.258981 0.169904 -0.0361208 -0.249989 0.306744 -0.726106 0.0763043 0.0372166 0.28209 0.0323181 -0.0447227 -0.655949 -0.277822 -0.0277492 -0.195232 0.278873 1.08577 0.211508 -0.0842555 0.0758083 0.829414 -0.779079 0.23896 -0.120425
25 0.0967502 0.0882561 -0.120178 -0.0987935 -0.0239927 -0.013237 0.00787839 0.0351197 0.0548549 0.00947688 0.0127771 0.0161869 -0.0318669 -0.0275114 0.00941779 -0.0295919 -0.0476088 -0.0495435 -0.026705 -0.0398098 -0.0173313 -0.0371217 0.0626376 0.111605 -0.00222303 0.0105506 0.0415677 -0.0244034 -0.0111029 -0.0621681 -0.040796 0.0938865 0.0049978 0.0344128 -0.0395893 -0.104306 -0.0452873 0.0514189 -0.0123344 -0.066713 0.00461701 0.0203798 -0.00418243 -0.0808878 -0.0286677 -0.0333345 0.0683798 -0.0116686 0.0539649 0.0945002 -0.116343 0.0331023 0.0144954 0.00544936 -0.0348898 0.00769727 0.0163249 -0.0116605 0.016455 -0.00276727 0.128536 0.237149 0.0849577 0.0822607 -0.21775 -0.154777 0.0982888 -0.0227411 -0.121353 -0.0626825 -0.0283844 0.245975 0.349911 -0.0735084 0.195348 0.46868 -0.173496 -0.0902951 -0.30493 0.474627 0.48714 -0.431331 0.126818 -0.417583 -0.371644 0.137292 0.247511 0.0492737 -0.789624 -0.304363 -0.4037 0.243864 -0.160692 0.214512 -0.616795 -0.0559004 -0.00825226 0.274019 -0.175351 -0.348052 0.427013 -0.0725135 0.204111 0.34529 0.333122 0.162853 -0.00454384 -0.184387 0.278108 -0.685474 0.0286428 0.0839851 0.243043 0.0747605 -0.0219663 -0.567808 -0.277711 -0.0442534 -0.181338 0.308762 0.792463 0.149431 -0.00490292 0.0182509 0.613924 -0.649619 0.0755032 -0.076167
20 -0.0828491 -0.0415753 -0.00588696 0.0323037 0.0834971 0.0813984 -0.0379649 -0.126543 0.0373425 -0.0476156 -0.0435566 0.0684564 0.105983 0.0727541 -0.00569433 0.0574887 0.0210124 -0.00999182 -0.00199806 0.0288117 -0.0546436 -0.11457 0.11885 0.115912 0.187418 0.0368467 0.209394 0.0831791 -0.139543 -0.057661 -0.142379 0.175349 0.092017 0.0329601 -0.0856854 -0.0091816 0.0391345 0.102434 -0.000591704 -0.00167449 0.0589634 -0.0355941 -0.18832 0.0814608 -0.0707987 -0.00778128 -0.0792012 -0.0260528 -0.0855629 -0.00203323 -0.238921 0.195078 -0.0553721 0.0686249 0.0254707 0.00173997 0.270611 -0.0816424 0.0745921 0.133923 0.163078 0.301419 0.0669493 0.13 -0.0824762 -0.0595367 0.114535 0.0969778 -0.154004 -0.0532522 -0.0467662 0.353356 0.587348 -0.162155 0.269863 0.616192 -0.0353105 -0.0976074 -0.299675 0.433587 0.425038 -0.378757 0.0745586 -0.318295 -0.502502 0.185107 0.233712 0.0356716 -0.482185 -0.210947 -0.279543 0.219737 -0.157573 0.169062 -0.661856 -0.0767618 -0.0342444 0.359495 -0.292598 -0.291702 0.570375 -0.167028 0.187093 0.561844 0.309185 0.273654 -0.00659475 -0.284089 0.298114 -0.684591 0.147939 0.00660478 0.161066 0.00264885 -0.0204175 -0.459638 -0.177676 0.0376391 -0.193128 0.300311 0.810179 0.187395 -0.129891 0.100872 0.668773 -0.598594 0.213814 -0.0825967
12 -0.0274845 -0.0415808 0.0395522 0.0224964 0.0220582 -0.0280511 0.000785471 0.0154527 0.0421623 0.0663544 0.0204816 0.0237632 -0.129654 -0.0174354 0.0561932 0.0579002 -0.0525243 -0.0876623 0.00100721 0.00595374 -0.0171213 -0.00619368 -0.136468 -0.0745454 0.0258701 0.00779986 -0.0187594 0.00617457 0.0268773 0.0119096 -0.0284567 0.0512343 0.00124464 -0.00303666 0.0361366 0.178588 0.0487194 0.0415042 0.0098423 0.0210858 -0.0187794 0.00142946 0.00801739 0.00594259 -0.0251071 0.00717538 -0.0108201 -0.00209506 -0.000460002 -0.135782 -0.0602414 0.0434636 -0.0969631 0.0432988 0.113882 0.0788564 0.261825 -0.0852375 0.0866 0.097774 0.228587 0.390027 0.149617 0.156851 -0.112407 -0.0800499 0.0568572 0.0250705 -0.237053 -0.0815204 -0.057406 0.282579 0.445522 -0.1088 0.136013 0.371785 -0.100026 -0.0551525 -0.183836 0.26721 0.374982 -0.334841 0.0625508 -0.132116 -0.235749 0.0871001 0.17265 0.0151273 -0.522121 -0.208964 -0.362832 0.193232 -0.178913 0.178466 -0.749376 -0.0227031 0.0152136 0.413272 -0.250177 -0.263754 0.244421 -0.125117 0.096647 0.315794 0.187005 0.108341 -0.022237 -0.200116 0.237453 -0.532063 0.128455 0.0137849 0.176158 0.0355275 -0.0219867 -0.55217 -0.243654 0.00507862 -0.232412 0.339198 0.959703 0.14966 -0.0816924 0.0772131 0.817286 -0.764597 0.22633 -0.107941
4 0.153099 0.0429987 -0.108472 -0.112541 0.0211574 -0.106024 0.0295806 0.0489952 0.0993358 0.0544081 0.0992559 0.0354169 -0.149937 -0.0687627 0.0551489 7.94417e-05 -0.180754 -0.281775 -0.0253686 -0.0845504 -0.0654467 -0.109859 0.118298 0.115813 0.00973253 -0.00103041 -0.0944192 -0.0291754 0.0556699 0.0116941 -0.000395806 0.0985046 0.071422 0.0688513 -0.0603329 -0.093345 -0.0314021 0.138525 -0.0331569 -0.0506224 -0.0307192 -0.0217403 0.0311466 -0.0362238 0.0233253 -0.0414788 0.0735808 0.0522879 0.0311517 -0.00114148 -0.153978 0.0781873 -0.0814025 0.021902 0.0740685 0.045839 0.216336 -0.0493009 0.111094 0.055959 0.263775 0.397255 0.177656 0.131225 -0.273277 -0.204642 0.15716 0.0296564 -0.198646 -0.089511 -0.0479319 0.33355 0.482572 -0.0592012 0.233371 0.588035 -0.16923 -0.120798 -0.412766 0.608578 0.585891 -0.535657 0.146713 -0.402076 -0.261294 0.0898787 0.170488 0.049473 -0.572838 -0.280318 -0.438836 0.251765 -0.111689 0.220399 -0.617163 -0.00662206 0.038207 0.284086 -0.159059 -0.31799 0.476907 -0.120988 0.192682 0.388558 0.270658 0.114815 0.0464213 -0.185421 0.284606 -0.67785 0.105662 0.111669 0.282225 0.0809701 -0.00204174 -0.638309 -0.385546 -0.0509593 -0.266343 0.397665 0.944768 0.177004 -0.00323231 0.0311358 0.680152 -0.649163 0.092451 -0.127302
22 -0.0619677 -0.0203117 -0.0408098 -0.00424321 0.00202889 0.0231115 0.0116162 -0.0272918 0.0821243 -0.000994849 -0.0122068 0.0569814 -0.0281531 0.0113701 0.0129637 -0.00232608 0.0399287 0.000340391 0.0374227 0.0236915 -0.0328611 -0.0686341 0.00234882 0.0580746 0.0207279 -0.00226322 0.129028 0.013605 -0.0746365 -0.0429074 -0.0797751 0.136009 0.048484 0.0235068 0.00474659 0.0380712 0.0736777 0.0240268 -0.00305591 -0.0148227 0.0394293 0.00488531 -0.134715 -0.00246 -0.0830664 -0.0196927 -0.0299201 -0.0421598 0.0305588 -0.0939586 -0.281869 0.188638 -0.0575066 0.0680237 0.110145 0.0369298 0.259802 -0.0836307 0.0667369 0.0502977 0.164168 0.300032 0.107082 0.150395 -0.192088 -0.121169 0.151046 0.0641363 -0.144945 -0.0519921 0.0142787 0.233578 0.374267 -0.123603 0.180184 0.402102 -0.139937 -0.0764256 -0.216883 0.336883 0.474979 -0.430122 0.119753 -0.45559 -0.424301 0.207592 0.250582 0.0443284 -0.738767 -0.279083 -0.237386 0.15606 -0.152936 0.15159 -0.467857 -0.0438147 -0.00388984 0.155624 -0.186739 -0.292713 0.349254 -0.098103 0.149417 0.374966 0.303889 0.201572 -0.0366076 -0.223346 0.258033 -0.587176 0.110457 0.0470305 0.245656 0.0530896 -0.0323408 -0.759639 -0.203157 0.00642284 -0.212671 0.294575 0.863752 0.168807 -0.0584427 0.0647222 0.655582 -0.636972 0.125722 -0.0784467
2 -0.0675414 -0.0968497 0.0899508 0.0872797 0.137348 -0.0825416 0.00616154 -0.060055 0.0502159 -0.0114139 0.000546821 0.0123299 0.0874146 0.0364793 -0.0496126 -0.0313341 0.0389864 0.0209448 0.0148389 -0.0041075 -0.0637188 -0.127194 0.118165 0.063601 0.0849193 -0.00247829 -0.0329774 0.0102356 0.0302625 0.0599 -0.00971335 0.00580612 -0.00693812 0.00670194 -0.123462 -0.111235 0.0194351 0.118319 0.013643 -0.0594952 -0.0492953 -0.0665867 -0.0452262 0.0666254 0.00966289 -0.0285592 -0.0137951 0.0613254 -0.0150489 -0.177345 -0.235657 0.155234 -0.0576596 0.0442284 0.070181 0.0229022 0.296512 -0.0345775 0.0432999 0.0696409 0.149138 0.15916 0.0863115 0.0468128 -0.109905 -0.0653365 0.13923 0.0515841 -0.114833 -0.0372331 -0.0564111 0.305533 0.415884 -0.0754434 0.144461 0.380268 -0.0449206 -0.0948987 -0.36878 0.53048 0.484709 -0.406139 0.0861349 -0.285843 -0.23942 0.0432027 0.114989 0.0363988 -0.342476 -0.176666 -0.269351 0.17169 -0.0715429 0.146863 -0.564761 -0.0146498 0.0123158 0.306681 -0.190249 -0.311829 0.532038 -0.148439 0.131711 0.331739 0.325109 0.229257 0.0383754 -0.196703 0.296728 -0.704335 0.129585 0.0379472 0.153774 0.0683354 0.00851583 -0.449804 -0.312668 0.000596883 -0.263137 0.403496 1.03204 0.206043 -0.0622581 0.0706077 0.770093 -0.712586 0.204294 -0.125837
30 -0.0615498 -0.0436802 -0.104928 -0.119388 -0.0519086 0.151111 -0.00156603 -0.00836222 -0.00298869 -0.0478355 -0.075931 -0.0126203 0.171498 0.0514086 -0.0694023 0.0296072 0.130263 0.105317 0.0112857 0.0681321 0.0380584 -0.0234525 0.0848521 0.0144931 0.160666 0.00805427 0.220102 0.0536558 -0.0954506 0.00834354 -0.122759 0.0578245 -0.0610722 -0.0168424 -0.106969 -0.199048 0.0768391 -0.015295 0.0423712 -0.036064 -0.0211621 -0.00844713 -0.0173414 0.0605334 0.00130704 0.034484 -0.0275751 0.0519626 0.032444 -0.0478877 -0.283609 0.186349 -0.0816388 0.089153 0.100254 0.00474109 0.414287 -0.0685152 0.0802254 0.0479 0.144853 0.204027 0.126598 0.122799 -0.184309 -0.0864802 0.194659 0.0614111 -0.135747 -0.0475007 0.0229595 0.158687 0.168259 -0.0717267 0.0496788 0.202162 -0.0729999 -0.0453994 -0.229037 0.305839 0.379613 -0.312909 0.17351 -0.596086 -0.382485 0.105023 0.222981 0.0444098 -0.779657 -0.321776 -0.261302 0.133535 -0.184184 0.183956 -0.569138 -0.0410056 -0.0214678 0.166293 -0.169369 -0.336126 0.461349 -0.104527 0.0209779 0.147221 0.296275 0.262676 -0.00702569 -0.16994 0.247244 -0.571322 0.124941 0.00260419 0.109455 0.0872683 -0.0228144 -0.595886 -0.20159 0.0309537 -0.177638 0.310794 0.834123 0.128188 -0.0832971 0.0827672 0.741832 -0.711707 0.211514 -0.10124
1 -0.100349 -0.086421 0.1598 0.164601 0.177883 -0.133256 0.0196731 -0.0290333 0.0353041 0.00822026 0.0244675 0.00860099 -0.0695039 -0.00382684 0.0406292 0.0586712 -0.0131939 -0.0337165 0.0029684 -0.0296794 -0.0451094 -0.0914867 0.0599444 0.0679695 0.121189 0.0306329 0.0458045 0.0459945 -0.0560823 -0.0300803 -0.0836175 0.118235 0.0556841 0.0226606 0.00572305 0.0815604 0.0334504 -0.0273305 -0.0067257 0.00474158 -0.042386 -0.0375788 -0.0264592 0.0453213 -0.00993338 -0.0445276 -0.0883662 -0.00212433 0.0114174 -0.307218 -0.161185 0.113455 -0.0504656 0.0161814 0.0761877 0.0396099 0.297421 -0.057805 0.0492582 0.080903 0.154985 0.22768 0.111813 0.0896494 -0.0837851 -0.0523791 0.0544866 0.0256313 -0.138129 -0.0647978 -0.0684255 0.257769 0.393776 -0.0823596 0.139404 0.36725 -0.0422624 -0.0601889 -0.337453 0.501781 0.342439 -0.304588 0.0872403 -0.221857 -0.22712 0.0467684 0.110953 0.0224691 -0.398373 -0.204954 -0.203544 0.131986 -0.0677099 0.0997269 -0.539008 0.0058252 0.0132807 0.36159 -0.234529 -0.269636 0.333329 -0.115122 0.11072 0.316549 0.270614 0.196776 0.0157312 -0.206464 0.277027 -0.648715 0.141647 0.0290359 0.149062 0.0447975 -0.0189126 -0.386629 -0.230377 0.0102165 -0.250115 0.39016 1.10564 0.224019 -0.0769063 0.0813284 0.930143 -0.890336 0.244653 -0.136845
37 -0.0556081 -0.0742109 0.103581 0.109797 0.12591 -0.148203 0.0560353 -0.0339561 0.114998 -0.00391881 0.0461057 0.0334147 -0.0533682 -0.0126488 0.0603472 0.0372563 -0.0513589 -0.185248 0.0431477 -0.0457745 -0.105832 -0.167052 0.144564 0.0692555 0.0817891 -0.012937 -0.0432426 0.0191734 -0.0450954 0.00364913 -0.092966 0.213187 0.195196 0.109872 -0.00808243 0.0273958 0.0899407 -0.0474465 -0.0620217 0.134265 0.00949843 -0.0361195 0.0861216 0.0323682 0.101587 0.0299181 0.0384801 0.0627675 -0.014772 -0.180781 -0.213686 0.144931 -0.0908282 0.0487823 0.191323 0.056332 0.350503 -0.0628324 0.106166 0.0264065 0.208977 0.280389 0.150384 0.15036 -0.304362 -0.18742 0.23484 0.112877 -0.184777 -0.093163 0.00421248 0.400262 0.521981 -0.09523 0.248204 0.607174 -0.14755 -0.153758 -0.425847 0.659462 0.736957 -0.634161 0.126593 -0.444303 -0.295876 0.134433 0.157281 0.0158869 -0.640864 -0.327379 -0.323734 0.205583 -0.0674119 0.171648 -0.568322 -0.0150777 0.0607368 0.295993 -0.101233 -0.263309 0.371618 -0.100884 0.0995905 0.257032 0.176833 0.112082 0.0491477 -0.126521 0.178354 -0.410028 0.13173 0.0676686 0.204826 0.0640869 0.015638 -0.7116 -0.318601 -0.00196594 -0.30248 0.393987 1.00124 0.234807 -0.0175539 0.0637912 0.765411 -0.686195 0.119089 -0.135183
34 -0.12978 -0.132167 0.200892 0.186291 0.135339 -0.108245 0.0389023 -0.0639541 0.076264 -0.037463 0.0256659 0.0359696 -0.0801649 -0.00668584 0.122304 0.184667 -0.0607562 -0.209936 0.0456327 -0.012083 -0.0963183 -0.151464 0.141024 0.0209448 0.125192 0.00472005 0.0553414 0.0620825 -0.102741 -0.0138819 -0.140889 0.237909 0.197724 0.10862 0.0265874 0.100044 0.106555 -0.0786632 -0.0379528 0.11911 0.0296416 -0.0507621 0.0339014 0.0745478 0.0676209 0.0447895 -0.00305645 0.0489767 -0.0710624 -0.111667 -0.180998 0.15784 -0.106135 0.0677885 0.19109 0.0391543 0.406037 -0.0778099 0.102605 0.0286307 0.181198 0.24291 0.14061 0.161946 -0.258667 -0.153984 0.209971 0.135922 -0.220113 -0.093923 0.00993069 0.424265 0.581488 -0.143849 0.227825 0.588458 -0.120437 -0.155807 -0.460929 0.698067 0.733478 -0.610492 0.10177 -0.414323 -0.321331 0.131152 0.174668 0.00582232 -0.66786 -0.346815 -0.24322 0.171742 -0.0586429 0.121876 -0.522435 -0.0176488 0.0517129 0.341914 -0.0927118 -0.187928 0.263845 -0.0728028 0.051829 0.220755 0.181739 0.154538 0.0495401 -0.140396 0.149661 -0.343985 0.1367 0.0341104 0.124007 0.0353721 0.0187563 -0.615087 -0.290531 0.0368043 -0.295799 0.418246 0.982153 0.220827 -0.0579822 0.0870707 0.844325 -0.754487 0.16648 -0.125207
32 0.0546381 0.043042 -0.0594969 -0.0877512 0.0215555 -0.00556393 0.00829541 0.0176242 0.0102948 -0.0402517 0.00956973 -0.00973886 0.110189 -0.00322311 -0.00947597 0.0698639 0.0505946 0.0242781 -0.0363942 -0.0104721 0.0165226 0.0019427 0.147243 0.0464787 0.151328 0.00630389 0.102609 0.0339662 -0.0146847 -0.00151701 -0.0113611 -0.0351536 -0.0430768 0.0293419 -0.155824 -0.332802 -0.0418373 0.0652117 0.0141828 -0.0578171 -0.0217307 -0.0261704 0.0747349 0.0287329 0.074528 0.00757774 0.025897 0.0697782 0.0303156 0.113584 -0.136305 0.0485278 -0.0304105 0.00597631 -0.0018958 -0.017668 0.28262 -0.0181587 0.0306382 -0.0062571 0.12475 0.182123 0.106605 0.0841621 -0.216209 -0.126086 0.171403 -0.00165715 -0.12617 -0.0460127 0.00728698 0.237414 0.275259 -0.0534885 0.13072 0.390834 -0.110321 -0.108325 -0.379081 0.548232 0.415099 -0.355153 0.159159 -0.468466 -0.331753 0.0455654 0.204717 0.022604 -0.871933 -0.379812 -0.46105 0.246639 -0.195665 0.272278 -0.659147 -0.0595409 -0.00127607 0.274229 -0.132167 -0.331567 0.645565 -0.110625 0.0947241 0.204611 0.309387 0.240973 0.0344236 -0.127259 0.249621 -0.613062 0.0656248 0.0362353 0.117084 0.105495 -0.0119345 -0.448046 -0.286295 -0.00697491 -0.133974 0.28945 0.916384 0.150675 -0.0437101 0.053837 0.706717 -0.670462 0.168049 -0.103137
31 0.0284357 -0.00152367 -0.0364492 -0.0657528 -0.0368574 0.078576 0.0141884 -0.0213699 -0.0912252 -0.0496191 0.000711224 -0.013782 0.0856324 0.047084 -0.0200276 0.0283362 0.074539 0.00666262 0.0192255 -0.00954797 -0.00732393 0.0209269 0.0734602 -0.0122048 0.179626 0.0327145 0.131125 0.0738411 -0.0925257 -0.0384923 -0.0741412 0.0716625 0.0643607 0.0401018 -0.106419 -0.206102 0.00834751 0.00384315 -0.00561594 0.0135229 -0.0321445 -0.0489484 0.0371348 0.0492516 0.0376685 -0.011221 -0.0545681 0.032312 0.0010554 -0.176751 -0.160697 0.117433 -0.0751142 0.0282525 0.111311 0.0593389 0.434926 -0.0774093 0.130191 0.0668713 0.246768 0.388829 0.174594 0.171314 -0.204779 -0.124875 0.135379 0.0333444 -0.14808 -0.0795332 -0.00865076 0.166757 0.34363 -0.071236 0.132826 0.409242 -0.0528142 -0.0821224 -0.42585 0.613575 0.49076 -0.424328 0.147494 -0.406866 -0.438626 0.0932605 0.181882 0.016938 -0.815459 -0.390092 -0.44685 0.250317 -0.191488 0.263202 -0.801636 -0.017653 0.0180831 0.419525 -0.185375 -0.254973 0.528535 -0.126785 0.12299 0.422135 0.249508 0.244013 0.044814 -0.181788 0.261479 -0.631373 0.138485 0.0301582 0.122721 0.0562572 -0.00834152 -0.351818 -0.263579 0.0233084 -0.210891 0.355522 1.04027 0.206099 -0.0866012 0.0778471 0.749582 -0.726108 0.209898 -0.112089
13 -0.05736 -0.0632157 0.0254934 0.021873 0.0814801 -0.0805404 0.0347636 0.00432754 0.0808652 0.0503174 0.0380566 0.0610587 -0.121315 -0.000852686 0.0484021 0.032001 0.0156918 -0.0563438 0.0524973 -0.0064571 -0.0656977 -0.0801198 -0.0565107 -0.0138163 0.0639817 -0.00339589 -0.0105424 0.0480058 -0.0168747 0.00865679 -0.016361 0.0872141 0.0960793 0.0330057 0.0456028 0.188822 0.093206 -0.0100212 -0.0359131 0.107674 0.00581714 -0.0059254 -0.0103793 0.0570424 0.0206324 0.011785 -0.0399972 0.014039 -0.0193388 -0.19225 -0.134259 0.117046 -0.110995 0.0189684 0.16429 0.0449425 0.351681 -0.0936049 0.125549 0.111777 0.243772 0.399856 0.171251 0.161557 -0.149133 -0.0962554 0.118292 0.074855 -0.261508 -0.0951538 -0.0256079 0.256304 0.402831 -0.0758354 0.159459 0.395684 -0.0795327 -0.0619562 -0.24129 0.352565 0.38464 -0.371277 0.135826 -0.312618 -0.249085 0.110335 0.163478 0.00772674 -0.561998 -0.272829 -0.32005 0.177618 -0.185576 0.201424 -0.698104 -0.0015894 0.0460835 0.336374 -0.292549 -0.334534 0.424279 -0.180672 0.124247 0.418788 0.208882 0.145667 -0.000683288 -0.246133 0.295629 -0.662963 0.198967 0.0418917 0.223534 0.0483383 -0.0311171 -0.656438 -0.23792 0.0144957 -0.249598 0.341681 0.879724 0.153461 -0.0466104 0.0683214 0.675998 -0.595768 0.151954 -0.0901162
